<?xml version="1.0"?>
<opencv_storage>
<palomas type_id="opencv-haar-classifier">
  <size>
    50 50</size>
  <stages>
    <_>
      <trees>
        <_>
          <_>
            <feature>
              <rects>
                <_>
                  0 1 3 7 -1.</_>
                <_>
                  1 1 1 7 3.</_></rects>
              <tilted>0</tilted></feature>
            <threshold>1.3311089423950762e-004</threshold>
            <left_val>0.4933333098888397</left_val>
            <right_val>-0.9999973177909851</right_val></_></_></trees>
      <stage_threshold>0.4933333098888397</stage_threshold>
      <parent>-1</parent>
      <next>-1</next></_>
    <_>
      <trees>
        <_>
          <_>
            <feature>
              <rects>
                <_>
                  0 0 3 9 -1.</_>
                <_>
                  1 0 1 9 3.</_></rects>
              <tilted>0</tilted></feature>
            <threshold>-7.5771087722387165e-005</threshold>
            <left_val>-0.8071625232696533</left_val>
            <right_val>0.5497180223464966</right_val></_></_>
        <_>
          <_>
            <feature>
              <rects>
                <_>
                  45 23 2 21 -1.</_>
                <_>
                  45 23 1 21 2.</_></rects>
              <tilted>0</tilted></feature>
            <threshold>-1.2090370291844010e-003</threshold>
            <left_val>-0.6884335279464722</left_val>
            <right_val>0.0598441995680332</right_val></_></_>
        <_>
          <_>
            <feature>
              <rects>
                <_>
                  3 23 2 21 -1.</_>
                <_>
                  4 23 1 21 2.</_></rects>
              <tilted>0</tilted></feature>
            <threshold>1.7633200332056731e-004</threshold>
            <left_val>0.6265966296195984</left_val>
            <right_val>-0.8287739753723145</right_val></_></_></trees>
      <stage_threshold>-0.2192118018865585</stage_threshold>
      <parent>0</parent>
      <next>-1</next></_>
    <_>
      <trees>
        <_>
          <_>
            <feature>
              <rects>
                <_>
                  1 2 1 4 -1.</_>
                <_>
                  1 3 1 2 2.</_></rects>
              <tilted>0</tilted></feature>
            <threshold>-1.1945129699597601e-005</threshold>
            <left_val>-0.8352941274642944</left_val>
            <right_val>0.5107907056808472</right_val></_></_>
        <_>
          <_>
            <feature>
              <rects>
                <_>
                  13 10 25 12 -1.</_>
                <_>
                  13 16 25 6 2.</_></rects>
              <tilted>0</tilted></feature>
            <threshold>-0.0135280396789312</threshold>
            <left_val>0.5698670744895935</left_val>
            <right_val>-0.6832976937294006</right_val></_></_>
        <_>
          <_>
            <feature>
              <rects>
                <_>
                  4 6 2 2 -1.</_>
                <_>
                  4 6 1 1 2.</_>
                <_>
                  5 7 1 1 2.</_></rects>
              <tilted>0</tilted></feature>
            <threshold>-9.9537774076452479e-006</threshold>
            <left_val>-0.8195000290870667</left_val>
            <right_val>0.5845186114311218</right_val></_></_>
        <_>
          <_>
            <feature>
              <rects>
                <_>
                  42 22 5 20 -1.</_>
                <_>
                  42 27 5 10 2.</_></rects>
              <tilted>0</tilted></feature>
            <threshold>-0.0134814996272326</threshold>
            <left_val>-0.6265326142311096</left_val>
            <right_val>0.0276488307863474</right_val></_></_>
        <_>
          <_>
            <feature>
              <rects>
                <_>
                  4 20 2 21 -1.</_>
                <_>
                  4 27 2 7 3.</_></rects>
              <tilted>0</tilted></feature>
            <threshold>5.9896660968661308e-004</threshold>
            <left_val>0.6196724176406860</left_val>
            <right_val>-0.8034939765930176</right_val></_></_></trees>
      <stage_threshold>-0.4567534923553467</stage_threshold>
      <parent>1</parent>
      <next>-1</next></_>
    <_>
      <trees>
        <_>
          <_>
            <feature>
              <rects>
                <_>
                  20 40 4 6 -1.</_>
                <_>
                  20 40 4 3 2.</_></rects>
              <tilted>1</tilted></feature>
            <threshold>1.2233590241521597e-003</threshold>
            <left_val>0.5555555224418640</left_val>
            <right_val>-0.8426951766014099</right_val></_></_>
        <_>
          <_>
            <feature>
              <rects>
                <_>
                  40 33 3 6 -1.</_>
                <_>
                  41 34 1 6 3.</_></rects>
              <tilted>1</tilted></feature>
            <threshold>-1.0762340389192104e-003</threshold>
            <left_val>-0.6002032160758972</left_val>
            <right_val>0.1051414981484413</right_val></_></_>
        <_>
          <_>
            <feature>
              <rects>
                <_>
                  5 2 1 4 -1.</_>
                <_>
                  4 3 1 2 2.</_></rects>
              <tilted>1</tilted></feature>
            <threshold>6.8606386776082218e-005</threshold>
            <left_val>0.5082647204399109</left_val>
            <right_val>-0.9999986290931702</right_val></_></_></trees>
      <stage_threshold>-0.2292889058589935</stage_threshold>
      <parent>2</parent>
      <next>-1</next></_>
    <_>
      <trees>
        <_>
          <_>
            <feature>
              <rects>
                <_>
                  1 38 48 7 -1.</_>
                <_>
                  17 38 16 7 3.</_></rects>
              <tilted>0</tilted></feature>
            <threshold>-0.0275085996836424</threshold>
            <left_val>0.9470198750495911</left_val>
            <right_val>-0.4814806878566742</right_val></_></_>
        <_>
          <_>
            <feature>
              <rects>
                <_>
                  18 14 23 6 -1.</_>
                <_>
                  18 17 23 3 2.</_></rects>
              <tilted>0</tilted></feature>
            <threshold>-7.0336152566596866e-004</threshold>
            <left_val>0.5578404068946838</left_val>
            <right_val>-0.6067402958869934</right_val></_></_>
        <_>
          <_>
            <feature>
              <rects>
                <_>
                  0 31 23 18 -1.</_>
                <_>
                  0 40 23 9 2.</_></rects>
              <tilted>0</tilted></feature>
            <threshold>-0.0239814892411232</threshold>
            <left_val>-0.8953642845153809</left_val>
            <right_val>0.4803766906261444</right_val></_></_></trees>
      <stage_threshold>-0.6078444123268127</stage_threshold>
      <parent>3</parent>
      <next>-1</next></_>
    <_>
      <trees>
        <_>
          <_>
            <feature>
              <rects>
                <_>
                  3 12 44 12 -1.</_>
                <_>
                  14 12 22 12 2.</_></rects>
              <tilted>0</tilted></feature>
            <threshold>-0.0250029191374779</threshold>
            <left_val>1.</left_val>
            <right_val>-0.4545449912548065</right_val></_></_>
        <_>
          <_>
            <feature>
              <rects>
                <_>
                  47 4 3 4 -1.</_>
                <_>
                  47 6 3 2 2.</_></rects>
              <tilted>0</tilted></feature>
            <threshold>4.2229559039697051e-004</threshold>
            <left_val>0.3516843020915985</left_val>
            <right_val>-0.8706387877464294</right_val></_></_>
        <_>
          <_>
            <feature>
              <rects>
                <_>
                  3 1 44 20 -1.</_>
                <_>
                  14 1 22 20 2.</_></rects>
              <tilted>0</tilted></feature>
            <threshold>0.0296630598604679</threshold>
            <left_val>-0.5655249953269959</left_val>
            <right_val>0.8692420125007629</right_val></_></_>
        <_>
          <_>
            <feature>
              <rects>
                <_>
                  36 1 2 8 -1.</_>
                <_>
                  36 5 2 4 2.</_></rects>
              <tilted>0</tilted></feature>
            <threshold>1.9990610599052161e-004</threshold>
            <left_val>0.2571263909339905</left_val>
            <right_val>-0.4057188928127289</right_val></_></_></trees>
      <stage_threshold>-0.8418827056884766</stage_threshold>
      <parent>4</parent>
      <next>-1</next></_>
    <_>
      <trees>
        <_>
          <_>
            <feature>
              <rects>
                <_>
                  11 9 18 2 -1.</_>
                <_>
                  11 10 18 1 2.</_></rects>
              <tilted>0</tilted></feature>
            <threshold>-5.2645092364400625e-004</threshold>
            <left_val>0.9430605173110962</left_val>
            <right_val>-0.4308935105800629</right_val></_></_>
        <_>
          <_>
            <feature>
              <rects>
                <_>
                  10 9 30 16 -1.</_>
                <_>
                  10 17 30 8 2.</_></rects>
              <tilted>0</tilted></feature>
            <threshold>-0.0116377202793956</threshold>
            <left_val>0.5669065117835999</left_val>
            <right_val>-0.6981182098388672</right_val></_></_>
        <_>
          <_>
            <feature>
              <rects>
                <_>
                  9 3 4 3 -1.</_>
                <_>
                  8 4 4 1 3.</_></rects>
              <tilted>1</tilted></feature>
            <threshold>5.1697301387321204e-005</threshold>
            <left_val>0.5067939162254334</left_val>
            <right_val>-0.7582039237022400</right_val></_></_>
        <_>
          <_>
            <feature>
              <rects>
                <_>
                  2 47 48 1 -1.</_>
                <_>
                  14 47 24 1 2.</_></rects>
              <tilted>0</tilted></feature>
            <threshold>-4.1150050237774849e-003</threshold>
            <left_val>0.8471986055374146</left_val>
            <right_val>-0.4347226023674011</right_val></_></_>
        <_>
          <_>
            <feature>
              <rects>
                <_>
                  0 1 50 42 -1.</_>
                <_>
                  0 22 50 21 2.</_></rects>
              <tilted>0</tilted></feature>
            <threshold>-0.5269188880920410</threshold>
            <left_val>-1.</left_val>
            <right_val>0.5332108736038208</right_val></_></_></trees>
      <stage_threshold>-0.5237295031547546</stage_threshold>
      <parent>5</parent>
      <next>-1</next></_>
    <_>
      <trees>
        <_>
          <_>
            <feature>
              <rects>
                <_>
                  5 8 34 26 -1.</_>
                <_>
                  5 21 34 13 2.</_></rects>
              <tilted>0</tilted></feature>
            <threshold>0.0116411503404379</threshold>
            <left_val>0.5949367284774780</left_val>
            <right_val>-0.9591810107231140</right_val></_></_>
        <_>
          <_>
            <feature>
              <rects>
                <_>
                  44 1 6 6 -1.</_>
                <_>
                  46 3 2 2 9.</_></rects>
              <tilted>0</tilted></feature>
            <threshold>-1.2169050023658201e-004</threshold>
            <left_val>-0.6693071722984314</left_val>
            <right_val>0.2390577942132950</right_val></_></_>
        <_>
          <_>
            <feature>
              <rects>
                <_>
                  9 17 18 2 -1.</_>
                <_>
                  9 18 18 1 2.</_></rects>
              <tilted>0</tilted></feature>
            <threshold>-7.5745767389889807e-005</threshold>
            <left_val>0.6557285785675049</left_val>
            <right_val>-0.6794558763504028</right_val></_></_></trees>
      <stage_threshold>-0.7538263797760010</stage_threshold>
      <parent>6</parent>
      <next>-1</next></_>
    <_>
      <trees>
        <_>
          <_>
            <feature>
              <rects>
                <_>
                  0 1 3 3 -1.</_>
                <_>
                  1 1 1 3 3.</_></rects>
              <tilted>0</tilted></feature>
            <threshold>-6.2597682699561119e-005</threshold>
            <left_val>-0.9498208165168762</left_val>
            <right_val>0.4294972121715546</right_val></_></_>
        <_>
          <_>
            <feature>
              <rects>
                <_>
                  9 1 39 14 -1.</_>
                <_>
                  22 1 13 14 3.</_></rects>
              <tilted>0</tilted></feature>
            <threshold>-0.0527294203639030</threshold>
            <left_val>0.7708868980407715</left_val>
            <right_val>-0.2685765027999878</right_val></_></_>
        <_>
          <_>
            <feature>
              <rects>
                <_>
                  22 47 6 3 -1.</_>
                <_>
                  22 48 6 1 3.</_></rects>
              <tilted>0</tilted></feature>
            <threshold>-2.0380649948492646e-004</threshold>
            <left_val>-0.9309403896331787</left_val>
            <right_val>0.3875814080238342</right_val></_></_>
        <_>
          <_>
            <feature>
              <rects>
                <_>
                  6 41 38 4 -1.</_>
                <_>
                  6 42 38 2 2.</_></rects>
              <tilted>0</tilted></feature>
            <threshold>-7.3059892747551203e-004</threshold>
            <left_val>-0.8617848157882690</left_val>
            <right_val>0.4808372855186462</right_val></_></_></trees>
      <stage_threshold>-0.3499786853790283</stage_threshold>
      <parent>7</parent>
      <next>-1</next></_>
    <_>
      <trees>
        <_>
          <_>
            <feature>
              <rects>
                <_>
                  11 0 20 19 -1.</_>
                <_>
                  16 0 10 19 2.</_></rects>
              <tilted>0</tilted></feature>
            <threshold>-6.3856979832053185e-003</threshold>
            <left_val>0.8554217219352722</left_val>
            <right_val>-0.5035452246665955</right_val></_></_>
        <_>
          <_>
            <feature>
              <rects>
                <_>
                  18 5 32 40 -1.</_>
                <_>
                  18 25 32 20 2.</_></rects>
              <tilted>0</tilted></feature>
            <threshold>-0.2388360947370529</threshold>
            <left_val>-0.3598701953887940</left_val>
            <right_val>0.2451699972152710</right_val></_></_>
        <_>
          <_>
            <feature>
              <rects>
                <_>
                  12 21 6 11 -1.</_>
                <_>
                  14 21 2 11 3.</_></rects>
              <tilted>0</tilted></feature>
            <threshold>1.0393770207883790e-004</threshold>
            <left_val>-0.5363193750381470</left_val>
            <right_val>0.7225819826126099</right_val></_></_>
        <_>
          <_>
            <feature>
              <rects>
                <_>
                  19 37 17 3 -1.</_>
                <_>
                  19 38 17 1 3.</_></rects>
              <tilted>0</tilted></feature>
            <threshold>-7.4517162283882499e-004</threshold>
            <left_val>-0.6151617765426636</left_val>
            <right_val>0.3348929882049561</right_val></_></_></trees>
      <stage_threshold>-0.7559952139854431</stage_threshold>
      <parent>8</parent>
      <next>-1</next></_>
    <_>
      <trees>
        <_>
          <_>
            <feature>
              <rects>
                <_>
                  0 9 40 4 -1.</_>
                <_>
                  0 11 40 2 2.</_></rects>
              <tilted>0</tilted></feature>
            <threshold>-2.2717139218002558e-003</threshold>
            <left_val>0.7090908885002136</left_val>
            <right_val>-0.5342456102371216</right_val></_></_>
        <_>
          <_>
            <feature>
              <rects>
                <_>
                  26 13 15 13 -1.</_>
                <_>
                  31 13 5 13 3.</_></rects>
              <tilted>0</tilted></feature>
            <threshold>0.0225125104188919</threshold>
            <left_val>-0.0683181136846542</left_val>
            <right_val>0.7736793756484985</right_val></_></_>
        <_>
          <_>
            <feature>
              <rects>
                <_>
                  3 12 20 6 -1.</_>
                <_>
                  3 12 10 3 2.</_>
                <_>
                  13 15 10 3 2.</_></rects>
              <tilted>0</tilted></feature>
            <threshold>-3.3581228926777840e-003</threshold>
            <left_val>0.9523845911026001</left_val>
            <right_val>-0.3442656099796295</right_val></_></_>
        <_>
          <_>
            <feature>
              <rects>
                <_>
                  14 8 36 1 -1.</_>
                <_>
                  26 8 12 1 3.</_></rects>
              <tilted>0</tilted></feature>
            <threshold>7.7407602220773697e-003</threshold>
            <left_val>-0.0161856804043055</left_val>
            <right_val>1.</right_val></_></_>
        <_>
          <_>
            <feature>
              <rects>
                <_>
                  11 3 12 1 -1.</_>
                <_>
                  14 6 6 1 2.</_></rects>
              <tilted>1</tilted></feature>
            <threshold>-1.7689399828668684e-004</threshold>
            <left_val>0.8432984948158264</left_val>
            <right_val>-0.5182871222496033</right_val></_></_></trees>
      <stage_threshold>-0.4651162922382355</stage_threshold>
      <parent>9</parent>
      <next>-1</next></_>
    <_>
      <trees>
        <_>
          <_>
            <feature>
              <rects>
                <_>
                  10 3 10 2 -1.</_>
                <_>
                  15 3 5 2 2.</_></rects>
              <tilted>0</tilted></feature>
            <threshold>2.8766999093932100e-005</threshold>
            <left_val>0.5076922774314880</left_val>
            <right_val>-0.7021262049674988</right_val></_></_>
        <_>
          <_>
            <feature>
              <rects>
                <_>
                  46 9 1 4 -1.</_>
                <_>
                  46 11 1 2 2.</_></rects>
              <tilted>0</tilted></feature>
            <threshold>-1.0620459943311289e-004</threshold>
            <left_val>-0.6070386767387390</left_val>
            <right_val>0.1799414008855820</right_val></_></_>
        <_>
          <_>
            <feature>
              <rects>
                <_>
                  0 8 4 3 -1.</_>
                <_>
                  2 8 2 3 2.</_></rects>
              <tilted>0</tilted></feature>
            <threshold>5.2965631766710430e-005</threshold>
            <left_val>0.5660160183906555</left_val>
            <right_val>-0.7106838226318359</right_val></_></_>
        <_>
          <_>
            <feature>
              <rects>
                <_>
                  31 15 9 20 -1.</_>
                <_>
                  34 18 3 20 3.</_></rects>
              <tilted>1</tilted></feature>
            <threshold>5.6184302084147930e-003</threshold>
            <left_val>-0.1027114987373352</left_val>
            <right_val>0.3413692116737366</right_val></_></_>
        <_>
          <_>
            <feature>
              <rects>
                <_>
                  17 12 2 1 -1.</_>
                <_>
                  17 12 1 1 2.</_></rects>
              <tilted>1</tilted></feature>
            <threshold>6.6631597292143852e-005</threshold>
            <left_val>-0.5928984880447388</left_val>
            <right_val>0.7349990010261536</right_val></_></_></trees>
      <stage_threshold>-0.7186601161956787</stage_threshold>
      <parent>10</parent>
      <next>-1</next></_>
    <_>
      <trees>
        <_>
          <_>
            <feature>
              <rects>
                <_>
                  5 36 40 14 -1.</_>
                <_>
                  15 36 20 14 2.</_></rects>
              <tilted>0</tilted></feature>
            <threshold>-0.0418458990752697</threshold>
            <left_val>0.9400749206542969</left_val>
            <right_val>-0.3990457952022553</right_val></_></_>
        <_>
          <_>
            <feature>
              <rects>
                <_>
                  27 9 6 26 -1.</_>
                <_>
                  27 9 3 26 2.</_></rects>
              <tilted>1</tilted></feature>
            <threshold>0.0122909601777792</threshold>
            <left_val>-0.0166198592633009</left_val>
            <right_val>0.4696893095970154</right_val></_></_>
        <_>
          <_>
            <feature>
              <rects>
                <_>
                  22 7 26 6 -1.</_>
                <_>
                  22 7 26 3 2.</_></rects>
              <tilted>1</tilted></feature>
            <threshold>0.0183138195425272</threshold>
            <left_val>-0.4433161020278931</left_val>
            <right_val>1.0000009536743164</right_val></_></_>
        <_>
          <_>
            <feature>
              <rects>
                <_>
                  17 19 28 6 -1.</_>
                <_>
                  17 21 28 2 3.</_></rects>
              <tilted>0</tilted></feature>
            <threshold>7.4514758307486773e-004</threshold>
            <left_val>-0.2062027007341385</left_val>
            <right_val>0.5043535828590393</right_val></_></_>
        <_>
          <_>
            <feature>
              <rects>
                <_>
                  5 37 5 6 -1.</_>
                <_>
                  5 40 5 3 2.</_></rects>
              <tilted>0</tilted></feature>
            <threshold>8.8967772899195552e-004</threshold>
            <left_val>0.5147876739501953</left_val>
            <right_val>-0.8524121046066284</right_val></_></_></trees>
      <stage_threshold>-0.7207310795783997</stage_threshold>
      <parent>11</parent>
      <next>-1</next></_>
    <_>
      <trees>
        <_>
          <_>
            <feature>
              <rects>
                <_>
                  0 4 2 6 -1.</_>
                <_>
                  0 4 1 3 2.</_>
                <_>
                  1 7 1 3 2.</_></rects>
              <tilted>0</tilted></feature>
            <threshold>2.2227019144338556e-005</threshold>
            <left_val>0.3548386991024017</left_val>
            <right_val>-0.7970998883247376</right_val></_></_>
        <_>
          <_>
            <feature>
              <rects>
                <_>
                  30 17 9 24 -1.</_>
                <_>
                  33 20 3 24 3.</_></rects>
              <tilted>1</tilted></feature>
            <threshold>0.0323439203202724</threshold>
            <left_val>-0.0246780905872583</left_val>
            <right_val>-1.0000040531158447</right_val></_></_>
        <_>
          <_>
            <feature>
              <rects>
                <_>
                  22 19 22 9 -1.</_>
                <_>
                  19 22 22 3 3.</_></rects>
              <tilted>1</tilted></feature>
            <threshold>5.5186408571898937e-003</threshold>
            <left_val>-0.3914741873741150</left_val>
            <right_val>0.7941951751708984</right_val></_></_>
        <_>
          <_>
            <feature>
              <rects>
                <_>
                  45 3 4 4 -1.</_>
                <_>
                  45 4 4 2 2.</_></rects>
              <tilted>0</tilted></feature>
            <threshold>1.7183770250994712e-004</threshold>
            <left_val>0.2248785048723221</left_val>
            <right_val>-0.8514975905418396</right_val></_></_>
        <_>
          <_>
            <feature>
              <rects>
                <_>
                  0 40 2 8 -1.</_>
                <_>
                  0 44 2 4 2.</_></rects>
              <tilted>0</tilted></feature>
            <threshold>-1.1233089935558382e-005</threshold>
            <left_val>-0.6257315874099731</left_val>
            <right_val>0.4902209937572479</right_val></_></_></trees>
      <stage_threshold>-0.4621666967868805</stage_threshold>
      <parent>12</parent>
      <next>-1</next></_>
    <_>
      <trees>
        <_>
          <_>
            <feature>
              <rects>
                <_>
                  3 6 2 3 -1.</_>
                <_>
                  2 7 2 1 3.</_></rects>
              <tilted>1</tilted></feature>
            <threshold>-9.3627837486565113e-005</threshold>
            <left_val>-0.8133332729339600</left_val>
            <right_val>0.4093953967094421</right_val></_></_>
        <_>
          <_>
            <feature>
              <rects>
                <_>
                  28 27 4 19 -1.</_>
                <_>
                  28 27 2 19 2.</_></rects>
              <tilted>0</tilted></feature>
            <threshold>-3.5168670001439750e-004</threshold>
            <left_val>0.1635989993810654</left_val>
            <right_val>-0.2799757122993469</right_val></_></_>
        <_>
          <_>
            <feature>
              <rects>
                <_>
                  18 27 4 19 -1.</_>
                <_>
                  20 27 2 19 2.</_></rects>
              <tilted>0</tilted></feature>
            <threshold>-2.3569389668409713e-005</threshold>
            <left_val>0.5336307883262634</left_val>
            <right_val>-0.6716641783714294</right_val></_></_>
        <_>
          <_>
            <feature>
              <rects>
                <_>
                  44 31 6 18 -1.</_>
                <_>
                  46 31 2 18 3.</_></rects>
              <tilted>0</tilted></feature>
            <threshold>1.0574889893177897e-004</threshold>
            <left_val>0.4502060115337372</left_val>
            <right_val>-0.4959154129028320</right_val></_></_></trees>
      <stage_threshold>-0.6120188832283020</stage_threshold>
      <parent>13</parent>
      <next>-1</next></_></stages></palomas>
</opencv_storage>
